digraph Tree {
node [shape=box, style="rounded", color="black", fontname=helvetica] ;
edge [fontname=helvetica] ;
0 [label="Avg_Temp <= 17.7\nmse = 289.6\nsamples = 24196\nvalue = 454.3"] ;
1 [label="Avg_Temp <= 11.7\nmse = 86.2\nsamples = 9822\nvalue = 471.7"] ;
0 -> 1 [labeldistance=2.5, labelangle=45, headlabel="True"] ;
2 [label="Avg_Temp <= 8.9\nmse = 41.6\nsamples = 4315\nvalue = 479.6"] ;
1 -> 2 ;
3 [label="mse = 31.3\nsamples = 2066\nvalue = 483.5"] ;
2 -> 3 ;
4 [label="mse = 24.1\nsamples = 2249\nvalue = 476.0"] ;
2 -> 4 ;
5 [label="Avg_Temp <= 14.4\nmse = 35.0\nsamples = 5507\nvalue = 465.6"] ;
1 -> 5 ;
6 [label="mse = 22.2\nsamples = 2771\nvalue = 468.9"] ;
5 -> 6 ;
7 [label="mse = 25.5\nsamples = 2736\nvalue = 462.3"] ;
5 -> 7 ;
8 [label="Avg_Temp <= 22.8\nmse = 77.1\nsamples = 14374\nvalue = 442.3"] ;
0 -> 8 [labeldistance=2.5, labelangle=-45, headlabel="False"] ;
9 [label="Vacuum <= 47.3\nmse = 43.4\nsamples = 4641\nvalue = 451.0"] ;
8 -> 9 ;
10 [label="mse = 35.4\nsamples = 1035\nvalue = 457.9"] ;
9 -> 10 ;
11 [label="mse = 28.6\nsamples = 3606\nvalue = 449.1"] ;
9 -> 11 ;
12 [label="Vacuum <= 66.3\nmse = 39.6\nsamples = 9733\nvalue = 438.2"] ;
8 -> 12 ;
13 [label="mse = 25.5\nsamples = 4066\nvalue = 442.9"] ;
12 -> 13 ;
14 [label="mse = 22.2\nsamples = 5667\nvalue = 434.7"] ;
12 -> 14 ;
}